digraph Tree {
node [shape=box, fontname="helvetica"] ;
edge [fontname="helvetica"] ;
0 [label="x[1] <= 1.83\ngini = 0.489\nsamples = 1528\nvalue = [877, 651]"] ;
1 [label="x[1] <= 1.745\ngini = 0.368\nsamples = 494\nvalue = [120, 374]"] ;
0 -> 1 [labeldistance=2.5, labelangle=45, headlabel="True"] ;
2 [label="x[2] <= 19.17\ngini = 0.194\nsamples = 275\nvalue = [30, 245]"] ;
1 -> 2 ;
3 [label="x[3] <= 2.354\ngini = 0.303\nsamples = 156\nvalue = [29, 127]"] ;
2 -> 3 ;
4 [label="gini = 0.0\nsamples = 33\nvalue = [0, 33]"] ;
3 -> 4 ;
5 [label="x[3] <= 2.356\ngini = 0.36\nsamples = 123\nvalue = [29, 94]"] ;
3 -> 5 ;
6 [label="x[4] <= 7486.37\ngini = 0.469\nsamples = 8\nvalue = [5, 3]"] ;
5 -> 6 ;
7 [label="x[1] <= 1.714\ngini = 0.278\nsamples = 6\nvalue = [5, 1]"] ;
6 -> 7 ;
8 [label="gini = 0.0\nsamples = 1\nvalue = [0, 1]"] ;
7 -> 8 ;
9 [label="gini = 0.0\nsamples = 5\nvalue = [5, 0]"] ;
7 -> 9 ;
10 [label="gini = 0.0\nsamples = 2\nvalue = [0, 2]"] ;
6 -> 10 ;
11 [label="x[4] <= 7515.01\ngini = 0.33\nsamples = 115\nvalue = [24, 91]"] ;
5 -> 11 ;
12 [label="x[2] <= 18.103\ngini = 0.263\nsamples = 77\nvalue = [12, 65]"] ;
11 -> 12 ;
13 [label="gini = 0.0\nsamples = 1\nvalue = [1, 0]"] ;
12 -> 13 ;
14 [label="x[3] <= 2.359\ngini = 0.248\nsamples = 76\nvalue = [11, 65]"] ;
12 -> 14 ;
15 [label="x[3] <= 2.358\ngini = 0.432\nsamples = 19\nvalue = [6, 13]"] ;
14 -> 15 ;
16 [label="x[2] <= 19.09\ngini = 0.36\nsamples = 17\nvalue = [4, 13]"] ;
15 -> 16 ;
17 [label="x[0] <= 18.406\ngini = 0.245\nsamples = 14\nvalue = [2, 12]"] ;
16 -> 17 ;
18 [label="x[3] <= 2.358\ngini = 0.142\nsamples = 13\nvalue = [1, 12]"] ;
17 -> 18 ;
19 [label="gini = 0.0\nsamples = 9\nvalue = [0, 9]"] ;
18 -> 19 ;
20 [label="x[3] <= 2.358\ngini = 0.375\nsamples = 4\nvalue = [1, 3]"] ;
18 -> 20 ;
21 [label="gini = 0.0\nsamples = 1\nvalue = [1, 0]"] ;
20 -> 21 ;
22 [label="gini = 0.0\nsamples = 3\nvalue = [0, 3]"] ;
20 -> 22 ;
23 [label="gini = 0.0\nsamples = 1\nvalue = [1, 0]"] ;
17 -> 23 ;
24 [label="x[2] <= 19.123\ngini = 0.444\nsamples = 3\nvalue = [2, 1]"] ;
16 -> 24 ;
25 [label="gini = 0.0\nsamples = 2\nvalue = [2, 0]"] ;
24 -> 25 ;
26 [label="gini = 0.0\nsamples = 1\nvalue = [0, 1]"] ;
24 -> 26 ;
27 [label="gini = 0.0\nsamples = 2\nvalue = [2, 0]"] ;
15 -> 27 ;
28 [label="x[4] <= 7434.124\ngini = 0.16\nsamples = 57\nvalue = [5, 52]"] ;
14 -> 28 ;
29 [label="x[3] <= 2.376\ngini = 0.346\nsamples = 9\nvalue = [2, 7]"] ;
28 -> 29 ;
30 [label="x[1] <= 1.731\ngini = 0.219\nsamples = 8\nvalue = [1, 7]"] ;
29 -> 30 ;
31 [label="gini = 0.0\nsamples = 5\nvalue = [0, 5]"] ;
30 -> 31 ;
32 [label="x[2] <= 18.406\ngini = 0.444\nsamples = 3\nvalue = [1, 2]"] ;
30 -> 32 ;
33 [label="gini = 0.0\nsamples = 2\nvalue = [0, 2]"] ;
32 -> 33 ;
34 [label="gini = 0.0\nsamples = 1\nvalue = [1, 0]"] ;
32 -> 34 ;
35 [label="gini = 0.0\nsamples = 1\nvalue = [1, 0]"] ;
29 -> 35 ;
36 [label="x[3] <= 2.363\ngini = 0.117\nsamples = 48\nvalue = [3, 45]"] ;
28 -> 36 ;
37 [label="x[3] <= 2.362\ngini = 0.375\nsamples = 8\nvalue = [2, 6]"] ;
36 -> 37 ;
38 [label="x[1] <= 1.718\ngini = 0.245\nsamples = 7\nvalue = [1, 6]"] ;
37 -> 38 ;
39 [label="gini = 0.0\nsamples = 1\nvalue = [1, 0]"] ;
38 -> 39 ;
40 [label="gini = 0.0\nsamples = 6\nvalue = [0, 6]"] ;
38 -> 40 ;
41 [label="gini = 0.0\nsamples = 1\nvalue = [1, 0]"] ;
37 -> 41 ;
42 [label="x[4] <= 7494.716\ngini = 0.049\nsamples = 40\nvalue = [1, 39]"] ;
36 -> 42 ;
43 [label="gini = 0.0\nsamples = 28\nvalue = [0, 28]"] ;
42 -> 43 ;
44 [label="x[4] <= 7497.024\ngini = 0.153\nsamples = 12\nvalue = [1, 11]"] ;
42 -> 44 ;
45 [label="gini = 0.0\nsamples = 1\nvalue = [1, 0]"] ;
44 -> 45 ;
46 [label="gini = 0.0\nsamples = 11\nvalue = [0, 11]"] ;
44 -> 46 ;
47 [label="x[0] <= 18.618\ngini = 0.432\nsamples = 38\nvalue = [12, 26]"] ;
11 -> 47 ;
48 [label="x[4] <= 7533.053\ngini = 0.32\nsamples = 5\nvalue = [4, 1]"] ;
47 -> 48 ;
49 [label="gini = 0.0\nsamples = 4\nvalue = [4, 0]"] ;
48 -> 49 ;
50 [label="gini = 0.0\nsamples = 1\nvalue = [0, 1]"] ;
48 -> 50 ;
51 [label="x[1] <= 1.737\ngini = 0.367\nsamples = 33\nvalue = [8, 25]"] ;
47 -> 51 ;
52 [label="x[3] <= 2.38\ngini = 0.18\nsamples = 20\nvalue = [2, 18]"] ;
51 -> 52 ;
53 [label="gini = 0.0\nsamples = 17\nvalue = [0, 17]"] ;
52 -> 53 ;
54 [label="x[3] <= 2.388\ngini = 0.444\nsamples = 3\nvalue = [2, 1]"] ;
52 -> 54 ;
55 [label="gini = 0.0\nsamples = 2\nvalue = [2, 0]"] ;
54 -> 55 ;
56 [label="gini = 0.0\nsamples = 1\nvalue = [0, 1]"] ;
54 -> 56 ;
57 [label="x[0] <= 19.041\ngini = 0.497\nsamples = 13\nvalue = [6, 7]"] ;
51 -> 57 ;
58 [label="gini = 0.0\nsamples = 3\nvalue = [3, 0]"] ;
57 -> 58 ;
59 [label="x[2] <= 18.924\ngini = 0.42\nsamples = 10\nvalue = [3, 7]"] ;
57 -> 59 ;
60 [label="gini = 0.0\nsamples = 5\nvalue = [0, 5]"] ;
59 -> 60 ;
61 [label="x[4] <= 7595.141\ngini = 0.48\nsamples = 5\nvalue = [3, 2]"] ;
59 -> 61 ;
62 [label="gini = 0.0\nsamples = 3\nvalue = [3, 0]"] ;
61 -> 62 ;
63 [label="gini = 0.0\nsamples = 2\nvalue = [0, 2]"] ;
61 -> 63 ;
64 [label="x[3] <= 2.382\ngini = 0.017\nsamples = 119\nvalue = [1, 118]"] ;
2 -> 64 ;
65 [label="gini = 0.0\nsamples = 100\nvalue = [0, 100]"] ;
64 -> 65 ;
66 [label="x[3] <= 2.383\ngini = 0.1\nsamples = 19\nvalue = [1, 18]"] ;
64 -> 66 ;
67 [label="gini = 0.0\nsamples = 1\nvalue = [1, 0]"] ;
66 -> 67 ;
68 [label="gini = 0.0\nsamples = 18\nvalue = [0, 18]"] ;
66 -> 68 ;
69 [label="x[4] <= 7631.454\ngini = 0.484\nsamples = 219\nvalue = [90, 129]"] ;
1 -> 69 ;
70 [label="x[3] <= 2.328\ngini = 0.446\nsamples = 194\nvalue = [65, 129]"] ;
69 -> 70 ;
71 [label="gini = 0.0\nsamples = 11\nvalue = [11, 0]"] ;
70 -> 71 ;
72 [label="x[2] <= 17.739\ngini = 0.416\nsamples = 183\nvalue = [54, 129]"] ;
70 -> 72 ;
73 [label="x[2] <= 17.395\ngini = 0.324\nsamples = 108\nvalue = [22, 86]"] ;
72 -> 73 ;
74 [label="x[2] <= 17.319\ngini = 0.393\nsamples = 67\nvalue = [18, 49]"] ;
73 -> 74 ;
75 [label="x[3] <= 2.423\ngini = 0.252\nsamples = 54\nvalue = [8, 46]"] ;
74 -> 75 ;
76 [label="x[1] <= 1.798\ngini = 0.165\nsamples = 44\nvalue = [4, 40]"] ;
75 -> 76 ;
77 [label="x[4] <= 7393.108\ngini = 0.5\nsamples = 4\nvalue = [2, 2]"] ;
76 -> 77 ;
78 [label="gini = 0.0\nsamples = 2\nvalue = [0, 2]"] ;
77 -> 78 ;
79 [label="gini = 0.0\nsamples = 2\nvalue = [2, 0]"] ;
77 -> 79 ;
80 [label="x[2] <= 16.466\ngini = 0.095\nsamples = 40\nvalue = [2, 38]"] ;
76 -> 80 ;
81 [label="x[1] <= 1.826\ngini = 0.5\nsamples = 2\nvalue = [1, 1]"] ;
80 -> 81 ;
82 [label="gini = 0.0\nsamples = 1\nvalue = [0, 1]"] ;
81 -> 82 ;
83 [label="gini = 0.0\nsamples = 1\nvalue = [1, 0]"] ;
81 -> 83 ;
84 [label="x[0] <= 22.233\ngini = 0.051\nsamples = 38\nvalue = [1, 37]"] ;
80 -> 84 ;
85 [label="gini = 0.0\nsamples = 29\nvalue = [0, 29]"] ;
84 -> 85 ;
86 [label="x[0] <= 22.257\ngini = 0.198\nsamples = 9\nvalue = [1, 8]"] ;
84 -> 86 ;
87 [label="gini = 0.0\nsamples = 1\nvalue = [1, 0]"] ;
86 -> 87 ;
88 [label="gini = 0.0\nsamples = 8\nvalue = [0, 8]"] ;
86 -> 88 ;
89 [label="x[3] <= 2.427\ngini = 0.48\nsamples = 10\nvalue = [4, 6]"] ;
75 -> 89 ;
90 [label="x[4] <= 7525.426\ngini = 0.375\nsamples = 4\nvalue = [3, 1]"] ;
89 -> 90 ;
91 [label="gini = 0.0\nsamples = 3\nvalue = [3, 0]"] ;
90 -> 91 ;
92 [label="gini = 0.0\nsamples = 1\nvalue = [0, 1]"] ;
90 -> 92 ;
93 [label="x[0] <= 22.044\ngini = 0.278\nsamples = 6\nvalue = [1, 5]"] ;
89 -> 93 ;
94 [label="gini = 0.0\nsamples = 5\nvalue = [0, 5]"] ;
93 -> 94 ;
95 [label="gini = 0.0\nsamples = 1\nvalue = [1, 0]"] ;
93 -> 95 ;
96 [label="x[4] <= 7522.601\ngini = 0.355\nsamples = 13\nvalue = [10, 3]"] ;
74 -> 96 ;
97 [label="x[2] <= 17.373\ngini = 0.165\nsamples = 11\nvalue = [10, 1]"] ;
96 -> 97 ;
98 [label="gini = 0.0\nsamples = 8\nvalue = [8, 0]"] ;
97 -> 98 ;
99 [label="x[1] <= 1.798\ngini = 0.444\nsamples = 3\nvalue = [2, 1]"] ;
97 -> 99 ;
100 [label="gini = 0.0\nsamples = 2\nvalue = [2, 0]"] ;
99 -> 100 ;
101 [label="gini = 0.0\nsamples = 1\nvalue = [0, 1]"] ;
99 -> 101 ;
102 [label="gini = 0.0\nsamples = 2\nvalue = [0, 2]"] ;
96 -> 102 ;
103 [label="x[3] <= 2.388\ngini = 0.176\nsamples = 41\nvalue = [4, 37]"] ;
73 -> 103 ;
104 [label="x[2] <= 17.616\ngini = 0.32\nsamples = 20\nvalue = [4, 16]"] ;
103 -> 104 ;
105 [label="x[0] <= 20.091\ngini = 0.48\nsamples = 10\nvalue = [4, 6]"] ;
104 -> 105 ;
106 [label="gini = 0.0\nsamples = 2\nvalue = [2, 0]"] ;
105 -> 106 ;
107 [label="x[3] <= 2.388\ngini = 0.375\nsamples = 8\nvalue = [2, 6]"] ;
105 -> 107 ;
108 [label="x[3] <= 2.377\ngini = 0.245\nsamples = 7\nvalue = [1, 6]"] ;
107 -> 108 ;
109 [label="x[4] <= 7462.814\ngini = 0.444\nsamples = 3\nvalue = [1, 2]"] ;
108 -> 109 ;
110 [label="gini = 0.0\nsamples = 2\nvalue = [0, 2]"] ;
109 -> 110 ;
111 [label="gini = 0.0\nsamples = 1\nvalue = [1, 0]"] ;
109 -> 111 ;
112 [label="gini = 0.0\nsamples = 4\nvalue = [0, 4]"] ;
108 -> 112 ;
113 [label="gini = 0.0\nsamples = 1\nvalue = [1, 0]"] ;
107 -> 113 ;
114 [label="gini = 0.0\nsamples = 10\nvalue = [0, 10]"] ;
104 -> 114 ;
115 [label="gini = 0.0\nsamples = 21\nvalue = [0, 21]"] ;
103 -> 115 ;
116 [label="x[1] <= 1.763\ngini = 0.489\nsamples = 75\nvalue = [32, 43]"] ;
72 -> 116 ;
117 [label="x[2] <= 18.425\ngini = 0.397\nsamples = 33\nvalue = [9, 24]"] ;
116 -> 117 ;
118 [label="x[1] <= 1.751\ngini = 0.227\nsamples = 23\nvalue = [3, 20]"] ;
117 -> 118 ;
119 [label="x[1] <= 1.75\ngini = 0.444\nsamples = 9\nvalue = [3, 6]"] ;
118 -> 119 ;
120 [label="x[0] <= 19.064\ngini = 0.245\nsamples = 7\nvalue = [1, 6]"] ;
119 -> 120 ;
121 [label="gini = 0.0\nsamples = 5\nvalue = [0, 5]"] ;
120 -> 121 ;
122 [label="x[0] <= 19.169\ngini = 0.5\nsamples = 2\nvalue = [1, 1]"] ;
120 -> 122 ;
123 [label="gini = 0.0\nsamples = 1\nvalue = [1, 0]"] ;
122 -> 123 ;
124 [label="gini = 0.0\nsamples = 1\nvalue = [0, 1]"] ;
122 -> 124 ;
125 [label="gini = 0.0\nsamples = 2\nvalue = [2, 0]"] ;
119 -> 125 ;
126 [label="gini = 0.0\nsamples = 14\nvalue = [0, 14]"] ;
118 -> 126 ;
127 [label="x[3] <= 2.391\ngini = 0.48\nsamples = 10\nvalue = [6, 4]"] ;
117 -> 127 ;
128 [label="gini = 0.0\nsamples = 4\nvalue = [4, 0]"] ;
127 -> 128 ;
129 [label="x[4] <= 7554.436\ngini = 0.444\nsamples = 6\nvalue = [2, 4]"] ;
127 -> 129 ;
130 [label="x[4] <= 7535.112\ngini = 0.444\nsamples = 3\nvalue = [2, 1]"] ;
129 -> 130 ;
131 [label="gini = 0.0\nsamples = 1\nvalue = [0, 1]"] ;
130 -> 131 ;
132 [label="gini = 0.0\nsamples = 2\nvalue = [2, 0]"] ;
130 -> 132 ;
133 [label="gini = 0.0\nsamples = 3\nvalue = [0, 3]"] ;
129 -> 133 ;
134 [label="x[3] <= 2.41\ngini = 0.495\nsamples = 42\nvalue = [23.0, 19.0]"] ;
116 -> 134 ;
135 [label="x[3] <= 2.386\ngini = 0.444\nsamples = 30\nvalue = [20, 10]"] ;
134 -> 135 ;
136 [label="x[1] <= 1.769\ngini = 0.42\nsamples = 10\nvalue = [3, 7]"] ;
135 -> 136 ;
137 [label="gini = 0.0\nsamples = 2\nvalue = [2, 0]"] ;
136 -> 137 ;
138 [label="x[3] <= 2.373\ngini = 0.219\nsamples = 8\nvalue = [1, 7]"] ;
136 -> 138 ;
139 [label="gini = 0.0\nsamples = 1\nvalue = [1, 0]"] ;
138 -> 139 ;
140 [label="gini = 0.0\nsamples = 7\nvalue = [0, 7]"] ;
138 -> 140 ;
141 [label="x[2] <= 17.898\ngini = 0.255\nsamples = 20\nvalue = [17, 3]"] ;
135 -> 141 ;
142 [label="gini = 0.0\nsamples = 8\nvalue = [8, 0]"] ;
141 -> 142 ;
143 [label="x[2] <= 18.05\ngini = 0.375\nsamples = 12\nvalue = [9, 3]"] ;
141 -> 143 ;
144 [label="x[2] <= 17.989\ngini = 0.48\nsamples = 5\nvalue = [2, 3]"] ;
143 -> 144 ;
145 [label="x[2] <= 17.935\ngini = 0.444\nsamples = 3\nvalue = [2, 1]"] ;
144 -> 145 ;
146 [label="gini = 0.0\nsamples = 1\nvalue = [0, 1]"] ;
145 -> 146 ;
147 [label="gini = 0.0\nsamples = 2\nvalue = [2, 0]"] ;
145 -> 147 ;
148 [label="gini = 0.0\nsamples = 2\nvalue = [0, 2]"] ;
144 -> 148 ;
149 [label="gini = 0.0\nsamples = 7\nvalue = [7, 0]"] ;
143 -> 149 ;
150 [label="x[2] <= 17.796\ngini = 0.375\nsamples = 12\nvalue = [3, 9]"] ;
134 -> 150 ;
151 [label="gini = 0.0\nsamples = 2\nvalue = [2, 0]"] ;
150 -> 151 ;
152 [label="x[3] <= 2.42\ngini = 0.18\nsamples = 10\nvalue = [1, 9]"] ;
150 -> 152 ;
153 [label="gini = 0.0\nsamples = 8\nvalue = [0, 8]"] ;
152 -> 153 ;
154 [label="x[4] <= 7577.755\ngini = 0.5\nsamples = 2\nvalue = [1, 1]"] ;
152 -> 154 ;
155 [label="gini = 0.0\nsamples = 1\nvalue = [1, 0]"] ;
154 -> 155 ;
156 [label="gini = 0.0\nsamples = 1\nvalue = [0, 1]"] ;
154 -> 156 ;
157 [label="gini = 0.0\nsamples = 25\nvalue = [25, 0]"] ;
69 -> 157 ;
158 [label="x[3] <= 2.492\ngini = 0.392\nsamples = 1034\nvalue = [757, 277]"] ;
0 -> 158 [labeldistance=2.5, labelangle=-45, headlabel="False"] ;
159 [label="x[1] <= 1.977\ngini = 0.457\nsamples = 743\nvalue = [481, 262]"] ;
158 -> 159 ;
160 [label="x[4] <= 7248.853\ngini = 0.43\nsamples = 650\nvalue = [447, 203]"] ;
159 -> 160 ;
161 [label="x[3] <= 2.485\ngini = 0.269\nsamples = 175\nvalue = [147, 28]"] ;
160 -> 161 ;
162 [label="x[3] <= 2.475\ngini = 0.262\nsamples = 174\nvalue = [147, 27]"] ;
161 -> 162 ;
163 [label="x[3] <= 2.473\ngini = 0.311\nsamples = 135\nvalue = [109.0, 26.0]"] ;
162 -> 163 ;
164 [label="x[2] <= 13.455\ngini = 0.238\nsamples = 123\nvalue = [106, 17]"] ;
163 -> 164 ;
165 [label="x[0] <= 24.628\ngini = 0.359\nsamples = 64\nvalue = [49, 15]"] ;
164 -> 165 ;
166 [label="x[2] <= 13.299\ngini = 0.32\nsamples = 5\nvalue = [1, 4]"] ;
165 -> 166 ;
167 [label="gini = 0.0\nsamples = 1\nvalue = [1, 0]"] ;
166 -> 167 ;
168 [label="gini = 0.0\nsamples = 4\nvalue = [0, 4]"] ;
166 -> 168 ;
169 [label="x[3] <= 2.465\ngini = 0.303\nsamples = 59\nvalue = [48, 11]"] ;
165 -> 169 ;
170 [label="x[3] <= 2.463\ngini = 0.435\nsamples = 25\nvalue = [17, 8]"] ;
169 -> 170 ;
171 [label="x[3] <= 2.449\ngini = 0.165\nsamples = 11\nvalue = [10, 1]"] ;
170 -> 171 ;
172 [label="gini = 0.0\nsamples = 1\nvalue = [0, 1]"] ;
171 -> 172 ;
173 [label="gini = 0.0\nsamples = 10\nvalue = [10, 0]"] ;
171 -> 173 ;
174 [label="x[0] <= 24.991\ngini = 0.5\nsamples = 14\nvalue = [7, 7]"] ;
170 -> 174 ;
175 [label="x[0] <= 24.883\ngini = 0.375\nsamples = 8\nvalue = [6, 2]"] ;
174 -> 175 ;
176 [label="x[2] <= 13.164\ngini = 0.5\nsamples = 4\nvalue = [2, 2]"] ;
175 -> 176 ;
177 [label="gini = 0.0\nsamples = 1\nvalue = [1, 0]"] ;
176 -> 177 ;
178 [label="x[2] <= 13.424\ngini = 0.444\nsamples = 3\nvalue = [1, 2]"] ;
176 -> 178 ;
179 [label="gini = 0.0\nsamples = 2\nvalue = [0, 2]"] ;
178 -> 179 ;
180 [label="gini = 0.0\nsamples = 1\nvalue = [1, 0]"] ;
178 -> 180 ;
181 [label="gini = 0.0\nsamples = 4\nvalue = [4, 0]"] ;
175 -> 181 ;
182 [label="x[3] <= 2.464\ngini = 0.278\nsamples = 6\nvalue = [1, 5]"] ;
174 -> 182 ;
183 [label="x[1] <= 1.975\ngini = 0.5\nsamples = 2\nvalue = [1, 1]"] ;
182 -> 183 ;
184 [label="gini = 0.0\nsamples = 1\nvalue = [1, 0]"] ;
183 -> 184 ;
185 [label="gini = 0.0\nsamples = 1\nvalue = [0, 1]"] ;
183 -> 185 ;
186 [label="gini = 0.0\nsamples = 4\nvalue = [0, 4]"] ;
182 -> 186 ;
187 [label="x[3] <= 2.469\ngini = 0.161\nsamples = 34\nvalue = [31, 3]"] ;
169 -> 187 ;
188 [label="x[2] <= 13.434\ngini = 0.069\nsamples = 28\nvalue = [27, 1]"] ;
187 -> 188 ;
189 [label="gini = 0.0\nsamples = 26\nvalue = [26, 0]"] ;
188 -> 189 ;
190 [label="x[2] <= 13.438\ngini = 0.5\nsamples = 2\nvalue = [1, 1]"] ;
188 -> 190 ;
191 [label="gini = 0.0\nsamples = 1\nvalue = [0, 1]"] ;
190 -> 191 ;
192 [label="gini = 0.0\nsamples = 1\nvalue = [1, 0]"] ;
190 -> 192 ;
193 [label="x[2] <= 13.3\ngini = 0.444\nsamples = 6\nvalue = [4, 2]"] ;
187 -> 193 ;
194 [label="gini = 0.0\nsamples = 4\nvalue = [4, 0]"] ;
193 -> 194 ;
195 [label="gini = 0.0\nsamples = 2\nvalue = [0, 2]"] ;
193 -> 195 ;
196 [label="x[3] <= 2.428\ngini = 0.065\nsamples = 59\nvalue = [57, 2]"] ;
164 -> 196 ;
197 [label="x[3] <= 2.426\ngini = 0.32\nsamples = 5\nvalue = [4, 1]"] ;
196 -> 197 ;
198 [label="gini = 0.0\nsamples = 4\nvalue = [4, 0]"] ;
197 -> 198 ;
199 [label="gini = 0.0\nsamples = 1\nvalue = [0, 1]"] ;
197 -> 199 ;
200 [label="x[3] <= 2.471\ngini = 0.036\nsamples = 54\nvalue = [53, 1]"] ;
196 -> 200 ;
201 [label="gini = 0.0\nsamples = 45\nvalue = [45, 0]"] ;
200 -> 201 ;
202 [label="x[1] <= 1.934\ngini = 0.198\nsamples = 9\nvalue = [8, 1]"] ;
200 -> 202 ;
203 [label="gini = 0.0\nsamples = 1\nvalue = [0, 1]"] ;
202 -> 203 ;
204 [label="gini = 0.0\nsamples = 8\nvalue = [8, 0]"] ;
202 -> 204 ;
205 [label="x[3] <= 2.474\ngini = 0.375\nsamples = 12\nvalue = [3, 9]"] ;
163 -> 205 ;
206 [label="gini = 0.0\nsamples = 8\nvalue = [0, 8]"] ;
205 -> 206 ;
207 [label="x[3] <= 2.475\ngini = 0.375\nsamples = 4\nvalue = [3, 1]"] ;
205 -> 207 ;
208 [label="gini = 0.0\nsamples = 3\nvalue = [3, 0]"] ;
207 -> 208 ;
209 [label="gini = 0.0\nsamples = 1\nvalue = [0, 1]"] ;
207 -> 209 ;
210 [label="x[2] <= 14.243\ngini = 0.05\nsamples = 39\nvalue = [38, 1]"] ;
162 -> 210 ;
211 [label="gini = 0.0\nsamples = 38\nvalue = [38, 0]"] ;
210 -> 211 ;
212 [label="gini = 0.0\nsamples = 1\nvalue = [0, 1]"] ;
210 -> 212 ;
213 [label="gini = 0.0\nsamples = 1\nvalue = [0, 1]"] ;
161 -> 213 ;
214 [label="x[3] <= 2.401\ngini = 0.465\nsamples = 475\nvalue = [300, 175]"] ;
160 -> 214 ;
215 [label="x[2] <= 15.999\ngini = 0.232\nsamples = 127\nvalue = [110, 17]"] ;
214 -> 215 ;
216 [label="x[2] <= 15.119\ngini = 0.115\nsamples = 82\nvalue = [77, 5]"] ;
215 -> 216 ;
217 [label="x[3] <= 2.368\ngini = 0.459\nsamples = 14\nvalue = [9, 5]"] ;
216 -> 217 ;
218 [label="gini = 0.0\nsamples = 2\nvalue = [0, 2]"] ;
217 -> 218 ;
219 [label="x[4] <= 7324.133\ngini = 0.375\nsamples = 12\nvalue = [9, 3]"] ;
217 -> 219 ;
220 [label="x[4] <= 7291.396\ngini = 0.298\nsamples = 11\nvalue = [9, 2]"] ;
219 -> 220 ;
221 [label="x[2] <= 14.494\ngini = 0.5\nsamples = 4\nvalue = [2, 2]"] ;
220 -> 221 ;
222 [label="gini = 0.0\nsamples = 1\nvalue = [1, 0]"] ;
221 -> 222 ;
223 [label="x[4] <= 7263.402\ngini = 0.444\nsamples = 3\nvalue = [1, 2]"] ;
221 -> 223 ;
224 [label="gini = 0.0\nsamples = 1\nvalue = [0, 1]"] ;
223 -> 224 ;
225 [label="x[4] <= 7283.401\ngini = 0.5\nsamples = 2\nvalue = [1, 1]"] ;
223 -> 225 ;
226 [label="gini = 0.0\nsamples = 1\nvalue = [1, 0]"] ;
225 -> 226 ;
227 [label="gini = 0.0\nsamples = 1\nvalue = [0, 1]"] ;
225 -> 227 ;
228 [label="gini = 0.0\nsamples = 7\nvalue = [7, 0]"] ;
220 -> 228 ;
229 [label="gini = 0.0\nsamples = 1\nvalue = [0, 1]"] ;
219 -> 229 ;
230 [label="gini = 0.0\nsamples = 68\nvalue = [68, 0]"] ;
216 -> 230 ;
231 [label="x[0] <= 23.794\ngini = 0.391\nsamples = 45\nvalue = [33, 12]"] ;
215 -> 231 ;
232 [label="x[3] <= 2.335\ngini = 0.475\nsamples = 31\nvalue = [19, 12]"] ;
231 -> 232 ;
233 [label="x[2] <= 16.022\ngini = 0.219\nsamples = 16\nvalue = [14, 2]"] ;
232 -> 233 ;
234 [label="gini = 0.0\nsamples = 1\nvalue = [0, 1]"] ;
233 -> 234 ;
235 [label="x[4] <= 7365.5\ngini = 0.124\nsamples = 15\nvalue = [14, 1]"] ;
233 -> 235 ;
236 [label="gini = 0.0\nsamples = 1\nvalue = [0, 1]"] ;
235 -> 236 ;
237 [label="gini = 0.0\nsamples = 14\nvalue = [14, 0]"] ;
235 -> 237 ;
238 [label="x[0] <= 22.715\ngini = 0.444\nsamples = 15\nvalue = [5, 10]"] ;
232 -> 238 ;
239 [label="x[4] <= 7421.736\ngini = 0.496\nsamples = 11\nvalue = [5, 6]"] ;
238 -> 239 ;
240 [label="x[2] <= 16.216\ngini = 0.375\nsamples = 8\nvalue = [2, 6]"] ;
239 -> 240 ;
241 [label="gini = 0.0\nsamples = 2\nvalue = [2, 0]"] ;
240 -> 241 ;
242 [label="gini = 0.0\nsamples = 6\nvalue = [0, 6]"] ;
240 -> 242 ;
243 [label="gini = 0.0\nsamples = 3\nvalue = [3, 0]"] ;
239 -> 243 ;
244 [label="gini = 0.0\nsamples = 4\nvalue = [0, 4]"] ;
238 -> 244 ;
245 [label="gini = 0.0\nsamples = 14\nvalue = [14, 0]"] ;
231 -> 245 ;
246 [label="x[4] <= 7575.308\ngini = 0.496\nsamples = 348\nvalue = [190.0, 158.0]"] ;
214 -> 246 ;
247 [label="x[0] <= 25.616\ngini = 0.5\nsamples = 299\nvalue = [145, 154]"] ;
246 -> 247 ;
248 [label="x[1] <= 1.957\ngini = 0.477\nsamples = 209\nvalue = [82.0, 127.0]"] ;
247 -> 248 ;
249 [label="x[4] <= 7282.248\ngini = 0.485\nsamples = 199\nvalue = [82, 117]"] ;
248 -> 249 ;
250 [label="x[3] <= 2.474\ngini = 0.423\nsamples = 23\nvalue = [16, 7]"] ;
249 -> 250 ;
251 [label="gini = 0.0\nsamples = 15\nvalue = [15, 0]"] ;
250 -> 251 ;
252 [label="x[2] <= 14.504\ngini = 0.219\nsamples = 8\nvalue = [1, 7]"] ;
250 -> 252 ;
253 [label="gini = 0.0\nsamples = 7\nvalue = [0, 7]"] ;
252 -> 253 ;
254 [label="gini = 0.0\nsamples = 1\nvalue = [1, 0]"] ;
252 -> 254 ;
255 [label="x[0] <= 24.512\ngini = 0.469\nsamples = 176\nvalue = [66, 110]"] ;
249 -> 255 ;
256 [label="x[4] <= 7490.16\ngini = 0.394\nsamples = 89\nvalue = [24, 65]"] ;
255 -> 256 ;
257 [label="x[3] <= 2.484\ngini = 0.281\nsamples = 65\nvalue = [11, 54]"] ;
256 -> 257 ;
258 [label="x[3] <= 2.409\ngini = 0.209\nsamples = 59\nvalue = [7, 52]"] ;
257 -> 258 ;
259 [label="x[0] <= 23.549\ngini = 0.444\nsamples = 3\nvalue = [2, 1]"] ;
258 -> 259 ;
260 [label="gini = 0.0\nsamples = 2\nvalue = [2, 0]"] ;
259 -> 260 ;
261 [label="gini = 0.0\nsamples = 1\nvalue = [0, 1]"] ;
259 -> 261 ;
262 [label="x[2] <= 14.6\ngini = 0.163\nsamples = 56\nvalue = [5, 51]"] ;
258 -> 262 ;
263 [label="gini = 0.0\nsamples = 1\nvalue = [1, 0]"] ;
262 -> 263 ;
264 [label="x[0] <= 23.156\ngini = 0.135\nsamples = 55\nvalue = [4, 51]"] ;
262 -> 264 ;
265 [label="x[3] <= 2.458\ngini = 0.308\nsamples = 21\nvalue = [4, 17]"] ;
264 -> 265 ;
266 [label="x[2] <= 16.678\ngini = 0.124\nsamples = 15\nvalue = [1, 14]"] ;
265 -> 266 ;
267 [label="gini = 0.0\nsamples = 13\nvalue = [0, 13]"] ;
266 -> 267 ;
268 [label="x[4] <= 7459.259\ngini = 0.5\nsamples = 2\nvalue = [1, 1]"] ;
266 -> 268 ;
269 [label="gini = 0.0\nsamples = 1\nvalue = [0, 1]"] ;
268 -> 269 ;
270 [label="gini = 0.0\nsamples = 1\nvalue = [1, 0]"] ;
268 -> 270 ;
271 [label="x[4] <= 7437.325\ngini = 0.5\nsamples = 6\nvalue = [3, 3]"] ;
265 -> 271 ;
272 [label="x[4] <= 7417.56\ngini = 0.375\nsamples = 4\nvalue = [1, 3]"] ;
271 -> 272 ;
273 [label="gini = 0.0\nsamples = 1\nvalue = [1, 0]"] ;
272 -> 273 ;
274 [label="gini = 0.0\nsamples = 3\nvalue = [0, 3]"] ;
272 -> 274 ;
275 [label="gini = 0.0\nsamples = 2\nvalue = [2, 0]"] ;
271 -> 275 ;
276 [label="gini = 0.0\nsamples = 34\nvalue = [0, 34]"] ;
264 -> 276 ;
277 [label="x[3] <= 2.487\ngini = 0.444\nsamples = 6\nvalue = [4, 2]"] ;
257 -> 277 ;
278 [label="gini = 0.0\nsamples = 3\nvalue = [3, 0]"] ;
277 -> 278 ;
279 [label="x[1] <= 1.901\ngini = 0.444\nsamples = 3\nvalue = [1, 2]"] ;
277 -> 279 ;
280 [label="gini = 0.0\nsamples = 1\nvalue = [1, 0]"] ;
279 -> 280 ;
281 [label="gini = 0.0\nsamples = 2\nvalue = [0, 2]"] ;
279 -> 281 ;
282 [label="x[3] <= 2.419\ngini = 0.497\nsamples = 24\nvalue = [13, 11]"] ;
256 -> 282 ;
283 [label="gini = 0.0\nsamples = 6\nvalue = [0, 6]"] ;
282 -> 283 ;
284 [label="x[0] <= 24.335\ngini = 0.401\nsamples = 18\nvalue = [13, 5]"] ;
282 -> 284 ;
285 [label="x[3] <= 2.424\ngini = 0.305\nsamples = 16\nvalue = [13, 3]"] ;
284 -> 285 ;
286 [label="x[0] <= 22.83\ngini = 0.5\nsamples = 4\nvalue = [2, 2]"] ;
285 -> 286 ;
287 [label="gini = 0.0\nsamples = 2\nvalue = [2, 0]"] ;
286 -> 287 ;
288 [label="gini = 0.0\nsamples = 2\nvalue = [0, 2]"] ;
286 -> 288 ;
289 [label="x[3] <= 2.459\ngini = 0.153\nsamples = 12\nvalue = [11, 1]"] ;
285 -> 289 ;
290 [label="gini = 0.0\nsamples = 9\nvalue = [9, 0]"] ;
289 -> 290 ;
291 [label="x[0] <= 23.84\ngini = 0.444\nsamples = 3\nvalue = [2, 1]"] ;
289 -> 291 ;
292 [label="gini = 0.0\nsamples = 1\nvalue = [0, 1]"] ;
291 -> 292 ;
293 [label="gini = 0.0\nsamples = 2\nvalue = [2, 0]"] ;
291 -> 293 ;
294 [label="gini = 0.0\nsamples = 2\nvalue = [0, 2]"] ;
284 -> 294 ;
295 [label="x[3] <= 2.418\ngini = 0.499\nsamples = 87\nvalue = [42, 45]"] ;
255 -> 295 ;
296 [label="gini = 0.0\nsamples = 5\nvalue = [5, 0]"] ;
295 -> 296 ;
297 [label="x[3] <= 2.489\ngini = 0.495\nsamples = 82\nvalue = [37, 45]"] ;
295 -> 297 ;
298 [label="x[1] <= 1.885\ngini = 0.499\nsamples = 77\nvalue = [37.0, 40.0]"] ;
297 -> 298 ;
299 [label="gini = 0.0\nsamples = 4\nvalue = [0, 4]"] ;
298 -> 299 ;
300 [label="x[2] <= 16.145\ngini = 0.5\nsamples = 73\nvalue = [37, 36]"] ;
298 -> 300 ;
301 [label="x[3] <= 2.447\ngini = 0.498\nsamples = 68\nvalue = [32, 36]"] ;
300 -> 301 ;
302 [label="x[4] <= 7515.859\ngini = 0.43\nsamples = 16\nvalue = [11, 5]"] ;
301 -> 302 ;
303 [label="x[2] <= 14.695\ngini = 0.26\nsamples = 13\nvalue = [11, 2]"] ;
302 -> 303 ;
304 [label="gini = 0.0\nsamples = 1\nvalue = [0, 1]"] ;
303 -> 304 ;
305 [label="x[3] <= 2.427\ngini = 0.153\nsamples = 12\nvalue = [11, 1]"] ;
303 -> 305 ;
306 [label="x[2] <= 15.204\ngini = 0.5\nsamples = 2\nvalue = [1, 1]"] ;
305 -> 306 ;
307 [label="gini = 0.0\nsamples = 1\nvalue = [1, 0]"] ;
306 -> 307 ;
308 [label="gini = 0.0\nsamples = 1\nvalue = [0, 1]"] ;
306 -> 308 ;
309 [label="gini = 0.0\nsamples = 10\nvalue = [10, 0]"] ;
305 -> 309 ;
310 [label="gini = 0.0\nsamples = 3\nvalue = [0, 3]"] ;
302 -> 310 ;
311 [label="x[0] <= 24.819\ngini = 0.482\nsamples = 52\nvalue = [21, 31]"] ;
301 -> 311 ;
312 [label="gini = 0.0\nsamples = 6\nvalue = [0, 6]"] ;
311 -> 312 ;
313 [label="x[3] <= 2.464\ngini = 0.496\nsamples = 46\nvalue = [21, 25]"] ;
311 -> 313 ;
314 [label="x[0] <= 25.157\ngini = 0.388\nsamples = 19\nvalue = [5, 14]"] ;
313 -> 314 ;
315 [label="x[4] <= 7478.54\ngini = 0.5\nsamples = 8\nvalue = [4, 4]"] ;
314 -> 315 ;
316 [label="gini = 0.0\nsamples = 4\nvalue = [4, 0]"] ;
315 -> 316 ;
317 [label="gini = 0.0\nsamples = 4\nvalue = [0, 4]"] ;
315 -> 317 ;
318 [label="x[3] <= 2.463\ngini = 0.165\nsamples = 11\nvalue = [1, 10]"] ;
314 -> 318 ;
319 [label="gini = 0.0\nsamples = 8\nvalue = [0, 8]"] ;
318 -> 319 ;
320 [label="x[3] <= 2.463\ngini = 0.444\nsamples = 3\nvalue = [1, 2]"] ;
318 -> 320 ;
321 [label="gini = 0.0\nsamples = 1\nvalue = [1, 0]"] ;
320 -> 321 ;
322 [label="gini = 0.0\nsamples = 2\nvalue = [0, 2]"] ;
320 -> 322 ;
323 [label="x[4] <= 7302.543\ngini = 0.483\nsamples = 27\nvalue = [16, 11]"] ;
313 -> 323 ;
324 [label="gini = 0.0\nsamples = 3\nvalue = [0, 3]"] ;
323 -> 324 ;
325 [label="x[4] <= 7360.647\ngini = 0.444\nsamples = 24\nvalue = [16, 8]"] ;
323 -> 325 ;
326 [label="gini = 0.0\nsamples = 7\nvalue = [7, 0]"] ;
325 -> 326 ;
327 [label="x[2] <= 15.153\ngini = 0.498\nsamples = 17\nvalue = [9, 8]"] ;
325 -> 327 ;
328 [label="x[4] <= 7403.55\ngini = 0.346\nsamples = 9\nvalue = [2, 7]"] ;
327 -> 328 ;
329 [label="x[3] <= 2.476\ngini = 0.5\nsamples = 4\nvalue = [2, 2]"] ;
328 -> 329 ;
330 [label="gini = 0.0\nsamples = 2\nvalue = [0, 2]"] ;
329 -> 330 ;
331 [label="gini = 0.0\nsamples = 2\nvalue = [2, 0]"] ;
329 -> 331 ;
332 [label="gini = 0.0\nsamples = 5\nvalue = [0, 5]"] ;
328 -> 332 ;
333 [label="x[1] <= 1.895\ngini = 0.219\nsamples = 8\nvalue = [7, 1]"] ;
327 -> 333 ;
334 [label="gini = 0.0\nsamples = 1\nvalue = [0, 1]"] ;
333 -> 334 ;
335 [label="gini = 0.0\nsamples = 7\nvalue = [7, 0]"] ;
333 -> 335 ;
336 [label="gini = 0.0\nsamples = 5\nvalue = [5, 0]"] ;
300 -> 336 ;
337 [label="gini = 0.0\nsamples = 5\nvalue = [0, 5]"] ;
297 -> 337 ;
338 [label="gini = 0.0\nsamples = 10\nvalue = [0, 10]"] ;
248 -> 338 ;
339 [label="x[2] <= 14.547\ngini = 0.42\nsamples = 90\nvalue = [63.0, 27.0]"] ;
247 -> 339 ;
340 [label="x[2] <= 13.964\ngini = 0.5\nsamples = 47\nvalue = [24.0, 23.0]"] ;
339 -> 340 ;
341 [label="x[1] <= 1.977\ngini = 0.375\nsamples = 12\nvalue = [3, 9]"] ;
340 -> 341 ;
342 [label="gini = 0.0\nsamples = 8\nvalue = [0, 8]"] ;
341 -> 342 ;
343 [label="x[0] <= 26.082\ngini = 0.375\nsamples = 4\nvalue = [3, 1]"] ;
341 -> 343 ;
344 [label="x[0] <= 25.924\ngini = 0.5\nsamples = 2\nvalue = [1, 1]"] ;
343 -> 344 ;
345 [label="gini = 0.0\nsamples = 1\nvalue = [1, 0]"] ;
344 -> 345 ;
346 [label="gini = 0.0\nsamples = 1\nvalue = [0, 1]"] ;
344 -> 346 ;
347 [label="gini = 0.0\nsamples = 2\nvalue = [2, 0]"] ;
343 -> 347 ;
348 [label="x[1] <= 1.96\ngini = 0.48\nsamples = 35\nvalue = [21, 14]"] ;
340 -> 348 ;
349 [label="x[1] <= 1.951\ngini = 0.494\nsamples = 18\nvalue = [8, 10]"] ;
348 -> 349 ;
350 [label="x[1] <= 1.948\ngini = 0.278\nsamples = 6\nvalue = [5, 1]"] ;
349 -> 350 ;
351 [label="gini = 0.0\nsamples = 1\nvalue = [0, 1]"] ;
350 -> 351 ;
352 [label="gini = 0.0\nsamples = 5\nvalue = [5, 0]"] ;
350 -> 352 ;
353 [label="x[3] <= 2.453\ngini = 0.375\nsamples = 12\nvalue = [3, 9]"] ;
349 -> 353 ;
354 [label="x[1] <= 1.955\ngini = 0.444\nsamples = 3\nvalue = [2, 1]"] ;
353 -> 354 ;
355 [label="gini = 0.0\nsamples = 1\nvalue = [0, 1]"] ;
354 -> 355 ;
356 [label="gini = 0.0\nsamples = 2\nvalue = [2, 0]"] ;
354 -> 356 ;
357 [label="x[1] <= 1.956\ngini = 0.198\nsamples = 9\nvalue = [1, 8]"] ;
353 -> 357 ;
358 [label="x[1] <= 1.955\ngini = 0.375\nsamples = 4\nvalue = [1, 3]"] ;
357 -> 358 ;
359 [label="gini = 0.0\nsamples = 3\nvalue = [0, 3]"] ;
358 -> 359 ;
360 [label="gini = 0.0\nsamples = 1\nvalue = [1, 0]"] ;
358 -> 360 ;
361 [label="gini = 0.0\nsamples = 5\nvalue = [0, 5]"] ;
357 -> 361 ;
362 [label="x[1] <= 1.963\ngini = 0.36\nsamples = 17\nvalue = [13, 4]"] ;
348 -> 362 ;
363 [label="gini = 0.0\nsamples = 9\nvalue = [9, 0]"] ;
362 -> 363 ;
364 [label="x[0] <= 26.482\ngini = 0.5\nsamples = 8\nvalue = [4, 4]"] ;
362 -> 364 ;
365 [label="x[3] <= 2.457\ngini = 0.32\nsamples = 5\nvalue = [1, 4]"] ;
364 -> 365 ;
366 [label="gini = 0.0\nsamples = 1\nvalue = [1, 0]"] ;
365 -> 366 ;
367 [label="gini = 0.0\nsamples = 4\nvalue = [0, 4]"] ;
365 -> 367 ;
368 [label="gini = 0.0\nsamples = 3\nvalue = [3, 0]"] ;
364 -> 368 ;
369 [label="x[3] <= 2.473\ngini = 0.169\nsamples = 43\nvalue = [39, 4]"] ;
339 -> 369 ;
370 [label="x[3] <= 2.46\ngini = 0.346\nsamples = 18\nvalue = [14, 4]"] ;
369 -> 370 ;
371 [label="gini = 0.0\nsamples = 8\nvalue = [8, 0]"] ;
370 -> 371 ;
372 [label="x[3] <= 2.467\ngini = 0.48\nsamples = 10\nvalue = [6, 4]"] ;
370 -> 372 ;
373 [label="gini = 0.0\nsamples = 3\nvalue = [0, 3]"] ;
372 -> 373 ;
374 [label="x[3] <= 2.472\ngini = 0.245\nsamples = 7\nvalue = [6, 1]"] ;
372 -> 374 ;
375 [label="gini = 0.0\nsamples = 6\nvalue = [6, 0]"] ;
374 -> 375 ;
376 [label="gini = 0.0\nsamples = 1\nvalue = [0, 1]"] ;
374 -> 376 ;
377 [label="gini = 0.0\nsamples = 25\nvalue = [25, 0]"] ;
369 -> 377 ;
378 [label="x[1] <= 1.832\ngini = 0.15\nsamples = 49\nvalue = [45.0, 4.0]"] ;
246 -> 378 ;
379 [label="gini = 0.0\nsamples = 1\nvalue = [0, 1]"] ;
378 -> 379 ;
380 [label="x[3] <= 2.47\ngini = 0.117\nsamples = 48\nvalue = [45, 3]"] ;
378 -> 380 ;
381 [label="gini = 0.0\nsamples = 28\nvalue = [28, 0]"] ;
380 -> 381 ;
382 [label="x[1] <= 1.875\ngini = 0.255\nsamples = 20\nvalue = [17, 3]"] ;
380 -> 382 ;
383 [label="gini = 0.0\nsamples = 3\nvalue = [0, 3]"] ;
382 -> 383 ;
384 [label="gini = 0.0\nsamples = 17\nvalue = [17, 0]"] ;
382 -> 384 ;
385 [label="x[0] <= 26.783\ngini = 0.464\nsamples = 93\nvalue = [34, 59]"] ;
159 -> 385 ;
386 [label="x[2] <= 13.356\ngini = 0.425\nsamples = 85\nvalue = [26.0, 59.0]"] ;
385 -> 386 ;
387 [label="x[1] <= 1.982\ngini = 0.484\nsamples = 61\nvalue = [25, 36]"] ;
386 -> 387 ;
388 [label="x[2] <= 13.312\ngini = 0.455\nsamples = 20\nvalue = [13, 7]"] ;
387 -> 388 ;
389 [label="x[2] <= 13.181\ngini = 0.5\nsamples = 14\nvalue = [7, 7]"] ;
388 -> 389 ;
390 [label="gini = 0.0\nsamples = 3\nvalue = [3, 0]"] ;
389 -> 390 ;
391 [label="x[3] <= 2.464\ngini = 0.463\nsamples = 11\nvalue = [4, 7]"] ;
389 -> 391 ;
392 [label="x[4] <= 7201.411\ngini = 0.32\nsamples = 5\nvalue = [4, 1]"] ;
391 -> 392 ;
393 [label="gini = 0.0\nsamples = 1\nvalue = [0, 1]"] ;
392 -> 393 ;
394 [label="gini = 0.0\nsamples = 4\nvalue = [4, 0]"] ;
392 -> 394 ;
395 [label="gini = 0.0\nsamples = 6\nvalue = [0, 6]"] ;
391 -> 395 ;
396 [label="gini = 0.0\nsamples = 6\nvalue = [6, 0]"] ;
388 -> 396 ;
397 [label="x[4] <= 7243.75\ngini = 0.414\nsamples = 41\nvalue = [12, 29]"] ;
387 -> 397 ;
398 [label="x[3] <= 2.463\ngini = 0.302\nsamples = 27\nvalue = [5, 22]"] ;
397 -> 398 ;
399 [label="x[4] <= 7221.029\ngini = 0.444\nsamples = 3\nvalue = [2, 1]"] ;
398 -> 399 ;
400 [label="gini = 0.0\nsamples = 1\nvalue = [0, 1]"] ;
399 -> 400 ;
401 [label="gini = 0.0\nsamples = 2\nvalue = [2, 0]"] ;
399 -> 401 ;
402 [label="x[0] <= 25.467\ngini = 0.219\nsamples = 24\nvalue = [3, 21]"] ;
398 -> 402 ;
403 [label="x[1] <= 1.986\ngini = 0.5\nsamples = 2\nvalue = [1, 1]"] ;
402 -> 403 ;
404 [label="gini = 0.0\nsamples = 1\nvalue = [1, 0]"] ;
403 -> 404 ;
405 [label="gini = 0.0\nsamples = 1\nvalue = [0, 1]"] ;
403 -> 405 ;
406 [label="x[1] <= 1.987\ngini = 0.165\nsamples = 22\nvalue = [2, 20]"] ;
402 -> 406 ;
407 [label="gini = 0.0\nsamples = 12\nvalue = [0, 12]"] ;
406 -> 407 ;
408 [label="x[1] <= 1.987\ngini = 0.32\nsamples = 10\nvalue = [2, 8]"] ;
406 -> 408 ;
409 [label="gini = 0.0\nsamples = 2\nvalue = [2, 0]"] ;
408 -> 409 ;
410 [label="gini = 0.0\nsamples = 8\nvalue = [0, 8]"] ;
408 -> 410 ;
411 [label="x[0] <= 26.556\ngini = 0.5\nsamples = 14\nvalue = [7, 7]"] ;
397 -> 411 ;
412 [label="x[3] <= 2.464\ngini = 0.42\nsamples = 10\nvalue = [7, 3]"] ;
411 -> 412 ;
413 [label="gini = 0.0\nsamples = 1\nvalue = [0, 1]"] ;
412 -> 413 ;
414 [label="x[1] <= 1.99\ngini = 0.346\nsamples = 9\nvalue = [7, 2]"] ;
412 -> 414 ;
415 [label="gini = 0.0\nsamples = 4\nvalue = [4, 0]"] ;
414 -> 415 ;
416 [label="x[4] <= 7265.201\ngini = 0.48\nsamples = 5\nvalue = [3, 2]"] ;
414 -> 416 ;
417 [label="x[3] <= 2.484\ngini = 0.444\nsamples = 3\nvalue = [1, 2]"] ;
416 -> 417 ;
418 [label="gini = 0.0\nsamples = 1\nvalue = [1, 0]"] ;
417 -> 418 ;
419 [label="gini = 0.0\nsamples = 2\nvalue = [0, 2]"] ;
417 -> 419 ;
420 [label="gini = 0.0\nsamples = 2\nvalue = [2, 0]"] ;
416 -> 420 ;
421 [label="gini = 0.0\nsamples = 4\nvalue = [0, 4]"] ;
411 -> 421 ;
422 [label="x[0] <= 26.164\ngini = 0.08\nsamples = 24\nvalue = [1, 23]"] ;
386 -> 422 ;
423 [label="gini = 0.0\nsamples = 19\nvalue = [0, 19]"] ;
422 -> 423 ;
424 [label="x[0] <= 26.193\ngini = 0.32\nsamples = 5\nvalue = [1, 4]"] ;
422 -> 424 ;
425 [label="gini = 0.0\nsamples = 1\nvalue = [1, 0]"] ;
424 -> 425 ;
426 [label="gini = 0.0\nsamples = 4\nvalue = [0, 4]"] ;
424 -> 426 ;
427 [label="gini = 0.0\nsamples = 8\nvalue = [8, 0]"] ;
385 -> 427 ;
428 [label="x[4] <= 7484.104\ngini = 0.098\nsamples = 291\nvalue = [276, 15]"] ;
158 -> 428 ;
429 [label="x[1] <= 1.966\ngini = 0.307\nsamples = 58\nvalue = [47, 11]"] ;
428 -> 429 ;
430 [label="x[2] <= 14.405\ngini = 0.464\nsamples = 30\nvalue = [19, 11]"] ;
429 -> 430 ;
431 [label="x[4] <= 7355.18\ngini = 0.278\nsamples = 6\nvalue = [1, 5]"] ;
430 -> 431 ;
432 [label="gini = 0.0\nsamples = 1\nvalue = [1, 0]"] ;
431 -> 432 ;
433 [label="gini = 0.0\nsamples = 5\nvalue = [0, 5]"] ;
431 -> 433 ;
434 [label="x[3] <= 2.502\ngini = 0.375\nsamples = 24\nvalue = [18, 6]"] ;
430 -> 434 ;
435 [label="gini = 0.0\nsamples = 14\nvalue = [14, 0]"] ;
434 -> 435 ;
436 [label="x[3] <= 2.505\ngini = 0.48\nsamples = 10\nvalue = [4, 6]"] ;
434 -> 436 ;
437 [label="gini = 0.0\nsamples = 3\nvalue = [0, 3]"] ;
436 -> 437 ;
438 [label="x[3] <= 2.507\ngini = 0.49\nsamples = 7\nvalue = [4, 3]"] ;
436 -> 438 ;
439 [label="gini = 0.0\nsamples = 3\nvalue = [3, 0]"] ;
438 -> 439 ;
440 [label="x[4] <= 7477.054\ngini = 0.375\nsamples = 4\nvalue = [1, 3]"] ;
438 -> 440 ;
441 [label="gini = 0.0\nsamples = 2\nvalue = [0, 2]"] ;
440 -> 441 ;
442 [label="x[0] <= 26.082\ngini = 0.5\nsamples = 2\nvalue = [1, 1]"] ;
440 -> 442 ;
443 [label="gini = 0.0\nsamples = 1\nvalue = [1, 0]"] ;
442 -> 443 ;
444 [label="gini = 0.0\nsamples = 1\nvalue = [0, 1]"] ;
442 -> 444 ;
445 [label="gini = 0.0\nsamples = 28\nvalue = [28, 0]"] ;
429 -> 445 ;
446 [label="x[0] <= 25.876\ngini = 0.034\nsamples = 233\nvalue = [229, 4]"] ;
428 -> 446 ;
447 [label="x[1] <= 1.92\ngini = 0.18\nsamples = 20\nvalue = [18, 2]"] ;
446 -> 447 ;
448 [label="x[3] <= 2.497\ngini = 0.1\nsamples = 19\nvalue = [18, 1]"] ;
447 -> 448 ;
449 [label="x[2] <= 15.842\ngini = 0.375\nsamples = 4\nvalue = [3, 1]"] ;
448 -> 449 ;
450 [label="gini = 0.0\nsamples = 3\nvalue = [3, 0]"] ;
449 -> 450 ;
451 [label="gini = 0.0\nsamples = 1\nvalue = [0, 1]"] ;
449 -> 451 ;
452 [label="gini = 0.0\nsamples = 15\nvalue = [15, 0]"] ;
448 -> 452 ;
453 [label="gini = 0.0\nsamples = 1\nvalue = [0, 1]"] ;
447 -> 453 ;
454 [label="x[4] <= 7500.82\ngini = 0.019\nsamples = 213\nvalue = [211, 2]"] ;
446 -> 454 ;
455 [label="x[4] <= 7500.666\ngini = 0.117\nsamples = 16\nvalue = [15, 1]"] ;
454 -> 455 ;
456 [label="gini = 0.0\nsamples = 15\nvalue = [15, 0]"] ;
455 -> 456 ;
457 [label="gini = 0.0\nsamples = 1\nvalue = [0, 1]"] ;
455 -> 457 ;
458 [label="x[3] <= 2.521\ngini = 0.01\nsamples = 197\nvalue = [196.0, 1.0]"] ;
454 -> 458 ;
459 [label="gini = 0.0\nsamples = 121\nvalue = [121, 0]"] ;
458 -> 459 ;
460 [label="x[3] <= 2.521\ngini = 0.026\nsamples = 76\nvalue = [75, 1]"] ;
458 -> 460 ;
461 [label="gini = 0.0\nsamples = 1\nvalue = [0, 1]"] ;
460 -> 461 ;
462 [label="gini = 0.0\nsamples = 75\nvalue = [75, 0]"] ;
460 -> 462 ;
}